{"s": {"l": [4, 10, 3], "r": 0.1, "m": 0, "b": true}, "w": [[[0.6637425200787116, -5.300603883404543, 12.965795207544499, 0.31639453480682955, -8.676493571059115, 1.8210930271501358, 3.003882716121593, -0.3606249153348645, -0.28782275713033595, 0.5785862040520446, 0.9159423325815605], [0.38547318815732456, -2.5843989539591674, -2.82628887745758, 2.6172611880190315, 3.4325165292595763, -14.1176163586993, -2.7471326307747748, -0.19085850915496985, -1.5628303633557887, 2.3752694129896326, 0.06139538464717509], [0.3796321146333211, 6.071052953875537, -16.25629269611525, -2.960993721533209, 8.032901611905327, 5.783847276532592, -1.2584993307983363, -1.0844852717239668, 2.521084281917166, -3.060508022732072, 0.3042536865612797], [-0.1529042856836516, 7.93397460345402, -12.129823233261245, -1.3987488578926082, -2.1391740497239957, 12.840447505676247, 0.25800936885558795, -0.917202699921105, 0.5491239853033787, -1.9266445958406033, 0.8213600367414147], [-0.028076116871581507, -6.351247796566118, 24.498284619172765, -0.23409442144054493, 6.660634160349564, -17.26410066347905, -1.2053992235774, -0.47624896077910633, -0.9767807298280846, -0.18928082682922726, -0.2003110562511361]], [[-0.7160991365342587, 0.36518969009474905, -0.9889656246693458], [-1.8873694439515585, -4.659525939777189, 4.822990734518782], [-0.04526251042284667, 9.426648986649388, -9.94787937474932], [3.54862897639969, -6.366525178875853, -0.22566519305814098], [-0.25317152270550825, 3.952703967324121, -4.297511850323563], [-2.4474368528476496, -5.915893747941289, 6.150832965140058], [-1.0818767254305979, -1.7640258152582262, 0.24247635321982378], [0.5794746508826782, 0.6267298067197742, 0.4212324345583062], [-2.66745503791033, 3.1498366056231255, -0.15718889920871543], [5.900026930453742, -6.92340854582205, -1.7642004059168375], [-1.5607550539106383, -0.31810271904502, -0.5780775959135294]]]}